digraph Tree {
node [shape=box] ;
0 [label="Number_children <= 0.5\ngini = 0.28\nsamples = 716\nvalue = [951, 192]\nclass = 0"] ;
1 [label="sex <= 0.5\ngini = 0.45\nsamples = 76\nvalue = [75, 39]\nclass = 0"] ;
0 -> 1 [labeldistance=2.5, labelangle=45, headlabel="True"] ;
2 [label="Ville_id <= 46.0\ngini = 0.137\nsamples = 20\nvalue = [25, 2]\nclass = 0"] ;
1 -> 2 ;
3 [label="gini = 0.0\nsamples = 8\nvalue = [11, 0]\nclass = 0"] ;
2 -> 3 ;
4 [label="Survey_id <= 763.5\ngini = 0.219\nsamples = 12\nvalue = [14, 2]\nclass = 0"] ;
2 -> 4 ;
5 [label="gini = 0.0\nsamples = 5\nvalue = [7, 0]\nclass = 0"] ;
4 -> 5 ;
6 [label="Age <= 50.5\ngini = 0.346\nsamples = 7\nvalue = [7, 2]\nclass = 0"] ;
4 -> 6 ;
7 [label="gini = 0.0\nsamples = 4\nvalue = [6, 0]\nclass = 0"] ;
6 -> 7 ;
8 [label="gini = 0.444\nsamples = 3\nvalue = [1, 2]\nclass = 1"] ;
6 -> 8 ;
9 [label="education_level <= 13.0\ngini = 0.489\nsamples = 56\nvalue = [50, 37]\nclass = 0"] ;
1 -> 9 ;
10 [label="Age <= 59.5\ngini = 0.482\nsamples = 55\nvalue = [50, 34]\nclass = 0"] ;
9 -> 10 ;
11 [label="Survey_id <= 776.5\ngini = 0.5\nsamples = 31\nvalue = [23, 23]\nclass = 0"] ;
10 -> 11 ;
12 [label="gini = 0.475\nsamples = 18\nvalue = [12, 19]\nclass = 1"] ;
11 -> 12 ;
13 [label="gini = 0.391\nsamples = 13\nvalue = [11, 4]\nclass = 0"] ;
11 -> 13 ;
14 [label="education_level <= 2.0\ngini = 0.411\nsamples = 24\nvalue = [27, 11]\nclass = 0"] ;
10 -> 14 ;
15 [label="gini = 0.466\nsamples = 14\nvalue = [17, 10]\nclass = 0"] ;
14 -> 15 ;
16 [label="gini = 0.165\nsamples = 10\nvalue = [10, 1]\nclass = 0"] ;
14 -> 16 ;
17 [label="gini = 0.0\nsamples = 1\nvalue = [0, 3]\nclass = 1"] ;
9 -> 17 ;
18 [label="Age <= 35.5\ngini = 0.253\nsamples = 640\nvalue = [876, 153]\nclass = 0"] ;
0 -> 18 [labeldistance=2.5, labelangle=-45, headlabel="False"] ;
19 [label="Ville_id <= 129.5\ngini = 0.205\nsamples = 446\nvalue = [633, 83]\nclass = 0"] ;
18 -> 19 ;
20 [label="Ville_id <= 18.5\ngini = 0.18\nsamples = 359\nvalue = [531, 59]\nclass = 0"] ;
19 -> 20 ;
21 [label="Number_children <= 1.5\ngini = 0.278\nsamples = 90\nvalue = [130, 26]\nclass = 0"] ;
20 -> 21 ;
22 [label="gini = 0.454\nsamples = 9\nvalue = [15, 8]\nclass = 0"] ;
21 -> 22 ;
23 [label="gini = 0.234\nsamples = 81\nvalue = [115, 18]\nclass = 0"] ;
21 -> 23 ;
24 [label="Survey_id <= 281.0\ngini = 0.141\nsamples = 269\nvalue = [401, 33]\nclass = 0"] ;
20 -> 24 ;
25 [label="gini = 0.325\nsamples = 32\nvalue = [39, 10]\nclass = 0"] ;
24 -> 25 ;
26 [label="gini = 0.112\nsamples = 237\nvalue = [362, 23]\nclass = 0"] ;
24 -> 26 ;
27 [label="Survey_id <= 646.5\ngini = 0.308\nsamples = 87\nvalue = [102, 24]\nclass = 0"] ;
19 -> 27 ;
28 [label="gini = 0.0\nsamples = 1\nvalue = [0, 2]\nclass = 1"] ;
27 -> 28 ;
29 [label="Ville_id <= 134.5\ngini = 0.292\nsamples = 86\nvalue = [102, 22]\nclass = 0"] ;
27 -> 29 ;
30 [label="gini = 0.48\nsamples = 4\nvalue = [2, 3]\nclass = 1"] ;
29 -> 30 ;
31 [label="gini = 0.268\nsamples = 82\nvalue = [100, 19]\nclass = 0"] ;
29 -> 31 ;
32 [label="Number_children <= 1.5\ngini = 0.347\nsamples = 194\nvalue = [243, 70]\nclass = 0"] ;
18 -> 32 ;
33 [label="education_level <= 4.5\ngini = 0.142\nsamples = 31\nvalue = [48, 4]\nclass = 0"] ;
32 -> 33 ;
34 [label="gini = 0.0\nsamples = 11\nvalue = [23, 0]\nclass = 0"] ;
33 -> 34 ;
35 [label="Age <= 41.0\ngini = 0.238\nsamples = 20\nvalue = [25, 4]\nclass = 0"] ;
33 -> 35 ;
36 [label="gini = 0.5\nsamples = 3\nvalue = [2, 2]\nclass = 0"] ;
35 -> 36 ;
37 [label="gini = 0.147\nsamples = 17\nvalue = [23, 2]\nclass = 0"] ;
35 -> 37 ;
38 [label="Number_children <= 10.5\ngini = 0.378\nsamples = 163\nvalue = [195, 66]\nclass = 0"] ;
32 -> 38 ;
39 [label="Ville_id <= 72.5\ngini = 0.372\nsamples = 162\nvalue = [195, 64]\nclass = 0"] ;
38 -> 39 ;
40 [label="gini = 0.422\nsamples = 102\nvalue = [113, 49]\nclass = 0"] ;
39 -> 40 ;
41 [label="gini = 0.261\nsamples = 60\nvalue = [82, 15]\nclass = 0"] ;
39 -> 41 ;
42 [label="gini = 0.0\nsamples = 1\nvalue = [0, 2]\nclass = 1"] ;
38 -> 42 ;
}