digraph Tree {
node [shape=box] ;
0 [label="Survey_id <= 1423.5\ngini = 0.275\nsamples = 733\nvalue = [955, 188]\nclass = 0"] ;
1 [label="Age <= 47.5\ngini = 0.272\nsamples = 730\nvalue = [953, 185]\nclass = 0"] ;
0 -> 1 [labeldistance=2.5, labelangle=45, headlabel="True"] ;
2 [label="Survey_id <= 448.0\ngini = 0.24\nsamples = 588\nvalue = [794, 129]\nclass = 0"] ;
1 -> 2 ;
3 [label="Survey_id <= 443.5\ngini = 0.301\nsamples = 196\nvalue = [260, 59]\nclass = 0"] ;
2 -> 3 ;
4 [label="Survey_id <= 18.0\ngini = 0.286\nsamples = 192\nvalue = [259, 54]\nclass = 0"] ;
3 -> 4 ;
5 [label="gini = 0.0\nsamples = 9\nvalue = [20, 0]\nclass = 0"] ;
4 -> 5 ;
6 [label="gini = 0.301\nsamples = 183\nvalue = [239, 54]\nclass = 0"] ;
4 -> 6 ;
7 [label="Married <= 0.5\ngini = 0.278\nsamples = 4\nvalue = [1, 5]\nclass = 1"] ;
3 -> 7 ;
8 [label="gini = 0.0\nsamples = 1\nvalue = [0, 3]\nclass = 1"] ;
7 -> 8 ;
9 [label="gini = 0.444\nsamples = 3\nvalue = [1, 2]\nclass = 1"] ;
7 -> 9 ;
10 [label="Survey_id <= 502.5\ngini = 0.205\nsamples = 392\nvalue = [534, 70]\nclass = 0"] ;
2 -> 10 ;
11 [label="gini = 0.0\nsamples = 25\nvalue = [37, 0]\nclass = 0"] ;
10 -> 11 ;
12 [label="Age <= 20.5\ngini = 0.216\nsamples = 367\nvalue = [497, 70]\nclass = 0"] ;
10 -> 12 ;
13 [label="gini = 0.038\nsamples = 32\nvalue = [50, 1]\nclass = 0"] ;
12 -> 13 ;
14 [label="gini = 0.232\nsamples = 335\nvalue = [447, 69]\nclass = 0"] ;
12 -> 14 ;
15 [label="Age <= 79.5\ngini = 0.385\nsamples = 142\nvalue = [159, 56]\nclass = 0"] ;
1 -> 15 ;
16 [label="Survey_id <= 1339.5\ngini = 0.373\nsamples = 134\nvalue = [152, 50]\nclass = 0"] ;
15 -> 16 ;
17 [label="Number_children <= 1.5\ngini = 0.349\nsamples = 126\nvalue = [148, 43]\nclass = 0"] ;
16 -> 17 ;
18 [label="gini = 0.241\nsamples = 66\nvalue = [86, 14]\nclass = 0"] ;
17 -> 18 ;
19 [label="gini = 0.434\nsamples = 60\nvalue = [62, 29]\nclass = 0"] ;
17 -> 19 ;
20 [label="Survey_id <= 1345.5\ngini = 0.463\nsamples = 8\nvalue = [4, 7]\nclass = 1"] ;
16 -> 20 ;
21 [label="gini = 0.0\nsamples = 1\nvalue = [0, 2]\nclass = 1"] ;
20 -> 21 ;
22 [label="gini = 0.494\nsamples = 7\nvalue = [4, 5]\nclass = 1"] ;
20 -> 22 ;
23 [label="Age <= 84.5\ngini = 0.497\nsamples = 8\nvalue = [7, 6]\nclass = 0"] ;
15 -> 23 ;
24 [label="Number_children <= 0.5\ngini = 0.408\nsamples = 4\nvalue = [2, 5]\nclass = 1"] ;
23 -> 24 ;
25 [label="gini = 0.444\nsamples = 2\nvalue = [2, 1]\nclass = 0"] ;
24 -> 25 ;
26 [label="gini = 0.0\nsamples = 2\nvalue = [0, 4]\nclass = 1"] ;
24 -> 26 ;
27 [label="Survey_id <= 900.0\ngini = 0.278\nsamples = 4\nvalue = [5, 1]\nclass = 0"] ;
23 -> 27 ;
28 [label="gini = 0.444\nsamples = 3\nvalue = [2, 1]\nclass = 0"] ;
27 -> 28 ;
29 [label="gini = 0.0\nsamples = 1\nvalue = [3, 0]\nclass = 0"] ;
27 -> 29 ;
30 [label="education_level <= 7.5\ngini = 0.48\nsamples = 3\nvalue = [2, 3]\nclass = 1"] ;
0 -> 30 [labeldistance=2.5, labelangle=-45, headlabel="False"] ;
31 [label="gini = 0.0\nsamples = 1\nvalue = [0, 3]\nclass = 1"] ;
30 -> 31 ;
32 [label="gini = 0.0\nsamples = 2\nvalue = [2, 0]\nclass = 0"] ;
30 -> 32 ;
}