digraph Tree {
node [shape=box] ;
0 [label="Survey_id <= 1397.0\ngini = 0.258\nsamples = 707\nvalue = [969, 174]\nclass = 0"] ;
1 [label="Survey_id <= 1373.5\ngini = 0.253\nsamples = 693\nvalue = [952, 166]\nclass = 0"] ;
0 -> 1 [labeldistance=2.5, labelangle=45, headlabel="True"] ;
2 [label="education_level <= 17.5\ngini = 0.258\nsamples = 679\nvalue = [924, 166]\nclass = 0"] ;
1 -> 2 ;
3 [label="Ville_id <= 206.0\ngini = 0.255\nsamples = 677\nvalue = [923, 163]\nclass = 0"] ;
2 -> 3 ;
4 [label="Ville_id <= 181.5\ngini = 0.245\nsamples = 648\nvalue = [893, 149]\nclass = 0"] ;
3 -> 4 ;
5 [label="gini = 0.254\nsamples = 624\nvalue = [849, 149]\nclass = 0"] ;
4 -> 5 ;
6 [label="gini = 0.0\nsamples = 24\nvalue = [44, 0]\nclass = 0"] ;
4 -> 6 ;
7 [label="Number_children <= 4.5\ngini = 0.434\nsamples = 29\nvalue = [30, 14]\nclass = 0"] ;
3 -> 7 ;
8 [label="gini = 0.465\nsamples = 26\nvalue = [24, 14]\nclass = 0"] ;
7 -> 8 ;
9 [label="gini = 0.0\nsamples = 3\nvalue = [6, 0]\nclass = 0"] ;
7 -> 9 ;
10 [label="Survey_id <= 473.5\ngini = 0.375\nsamples = 2\nvalue = [1, 3]\nclass = 1"] ;
2 -> 10 ;
11 [label="gini = 0.0\nsamples = 1\nvalue = [0, 3]\nclass = 1"] ;
10 -> 11 ;
12 [label="gini = 0.0\nsamples = 1\nvalue = [1, 0]\nclass = 0"] ;
10 -> 12 ;
13 [label="gini = 0.0\nsamples = 14\nvalue = [28, 0]\nclass = 0"] ;
1 -> 13 ;
14 [label="Survey_id <= 1398.5\ngini = 0.435\nsamples = 14\nvalue = [17, 8]\nclass = 0"] ;
0 -> 14 [labeldistance=2.5, labelangle=-45, headlabel="False"] ;
15 [label="gini = 0.0\nsamples = 1\nvalue = [0, 3]\nclass = 1"] ;
14 -> 15 ;
16 [label="Ville_id <= 104.0\ngini = 0.351\nsamples = 13\nvalue = [17, 5]\nclass = 0"] ;
14 -> 16 ;
17 [label="Age <= 30.0\ngini = 0.469\nsamples = 5\nvalue = [3, 5]\nclass = 1"] ;
16 -> 17 ;
18 [label="gini = 0.0\nsamples = 2\nvalue = [3, 0]\nclass = 0"] ;
17 -> 18 ;
19 [label="gini = 0.0\nsamples = 3\nvalue = [0, 5]\nclass = 1"] ;
17 -> 19 ;
20 [label="gini = 0.0\nsamples = 8\nvalue = [14, 0]\nclass = 0"] ;
16 -> 20 ;
}