digraph Tree {
node [shape=box] ;
0 [label="Age <= 76.5\ngini = 0.298\nsamples = 726\nvalue = [935, 208]\nclass = 0"] ;
1 [label="education_level <= 16.5\ngini = 0.292\nsamples = 716\nvalue = [931, 201]\nclass = 0"] ;
0 -> 1 [labeldistance=2.5, labelangle=45, headlabel="True"] ;
2 [label="Ville_id <= 204.0\ngini = 0.288\nsamples = 712\nvalue = [928, 196]\nclass = 0"] ;
1 -> 2 ;
3 [label="Number_children <= 6.5\ngini = 0.273\nsamples = 671\nvalue = [884, 172]\nclass = 0"] ;
2 -> 3 ;
4 [label="Number_children <= 5.5\ngini = 0.265\nsamples = 649\nvalue = [864, 161]\nclass = 0"] ;
3 -> 4 ;
5 [label="gini = 0.275\nsamples = 606\nvalue = [799, 157]\nclass = 0"] ;
4 -> 5 ;
6 [label="gini = 0.109\nsamples = 43\nvalue = [65, 4]\nclass = 0"] ;
4 -> 6 ;
7 [label="Survey_id <= 79.0\ngini = 0.458\nsamples = 22\nvalue = [20, 11]\nclass = 0"] ;
3 -> 7 ;
8 [label="gini = 0.0\nsamples = 2\nvalue = [0, 2]\nclass = 1"] ;
7 -> 8 ;
9 [label="gini = 0.428\nsamples = 20\nvalue = [20, 9]\nclass = 0"] ;
7 -> 9 ;
10 [label="Number_children <= 5.5\ngini = 0.457\nsamples = 41\nvalue = [44, 24]\nclass = 0"] ;
2 -> 10 ;
11 [label="Survey_id <= 1017.5\ngini = 0.402\nsamples = 38\nvalue = [44, 17]\nclass = 0"] ;
10 -> 11 ;
12 [label="gini = 0.0\nsamples = 1\nvalue = [0, 2]\nclass = 1"] ;
11 -> 12 ;
13 [label="gini = 0.379\nsamples = 37\nvalue = [44, 15]\nclass = 0"] ;
11 -> 13 ;
14 [label="gini = 0.0\nsamples = 3\nvalue = [0, 7]\nclass = 1"] ;
10 -> 14 ;
15 [label="Survey_id <= 446.0\ngini = 0.469\nsamples = 4\nvalue = [3, 5]\nclass = 1"] ;
1 -> 15 ;
16 [label="gini = 0.0\nsamples = 2\nvalue = [0, 5]\nclass = 1"] ;
15 -> 16 ;
17 [label="gini = 0.0\nsamples = 2\nvalue = [3, 0]\nclass = 0"] ;
15 -> 17 ;
18 [label="education_level <= 7.0\ngini = 0.463\nsamples = 10\nvalue = [4, 7]\nclass = 1"] ;
0 -> 18 [labeldistance=2.5, labelangle=-45, headlabel="False"] ;
19 [label="Survey_id <= 131.0\ngini = 0.346\nsamples = 8\nvalue = [2, 7]\nclass = 1"] ;
18 -> 19 ;
20 [label="gini = 0.0\nsamples = 1\nvalue = [1, 0]\nclass = 0"] ;
19 -> 20 ;
21 [label="Survey_id <= 1207.5\ngini = 0.219\nsamples = 7\nvalue = [1, 7]\nclass = 1"] ;
19 -> 21 ;
22 [label="gini = 0.0\nsamples = 6\nvalue = [0, 7]\nclass = 1"] ;
21 -> 22 ;
23 [label="gini = 0.0\nsamples = 1\nvalue = [1, 0]\nclass = 0"] ;
21 -> 23 ;
24 [label="gini = 0.0\nsamples = 2\nvalue = [2, 0]\nclass = 0"] ;
18 -> 24 ;
}