digraph Tree {
node [shape=box] ;
0 [label="Number_children <= 8.5\ngini = 0.276\nsamples = 725\nvalue = [954, 189]\nclass = 0"] ;
1 [label="Survey_id <= 25.5\ngini = 0.269\nsamples = 723\nvalue = [954, 182]\nclass = 0"] ;
0 -> 1 [labeldistance=2.5, labelangle=45, headlabel="True"] ;
2 [label="gini = 0.0\nsamples = 14\nvalue = [25, 0]\nclass = 0"] ;
1 -> 2 ;
3 [label="Survey_id <= 28.0\ngini = 0.274\nsamples = 709\nvalue = [929, 182]\nclass = 0"] ;
1 -> 3 ;
4 [label="gini = 0.0\nsamples = 1\nvalue = [0, 2]\nclass = 1"] ;
3 -> 4 ;
5 [label="Age <= 80.5\ngini = 0.272\nsamples = 708\nvalue = [929, 180]\nclass = 0"] ;
3 -> 5 ;
6 [label="education_level <= 7.5\ngini = 0.265\nsamples = 703\nvalue = [927, 173]\nclass = 0"] ;
5 -> 6 ;
7 [label="gini = 0.346\nsamples = 169\nvalue = [217, 62]\nclass = 0"] ;
6 -> 7 ;
8 [label="gini = 0.234\nsamples = 534\nvalue = [710, 111]\nclass = 0"] ;
6 -> 8 ;
9 [label="Age <= 81.5\ngini = 0.346\nsamples = 5\nvalue = [2, 7]\nclass = 1"] ;
5 -> 9 ;
10 [label="gini = 0.0\nsamples = 1\nvalue = [0, 2]\nclass = 1"] ;
9 -> 10 ;
11 [label="gini = 0.408\nsamples = 4\nvalue = [2, 5]\nclass = 1"] ;
9 -> 11 ;
12 [label="gini = 0.0\nsamples = 2\nvalue = [0, 7]\nclass = 1"] ;
0 -> 12 [labeldistance=2.5, labelangle=-45, headlabel="False"] ;
}