digraph Tree {
node [shape=box] ;
0 [label="Survey_id <= 84.0\ngini = 0.268\nsamples = 717\nvalue = [961, 182]\nclass = 0"] ;
1 [label="Survey_id <= 38.5\ngini = 0.083\nsamples = 48\nvalue = [66, 3]\nclass = 0"] ;
0 -> 1 [labeldistance=2.5, labelangle=45, headlabel="True"] ;
2 [label="education_level <= 17.0\ngini = 0.191\nsamples = 19\nvalue = [25, 3]\nclass = 0"] ;
1 -> 2 ;
3 [label="Age <= 30.0\ngini = 0.137\nsamples = 18\nvalue = [25, 2]\nclass = 0"] ;
2 -> 3 ;
4 [label="gini = 0.0\nsamples = 9\nvalue = [15, 0]\nclass = 0"] ;
3 -> 4 ;
5 [label="Number_children <= 4.5\ngini = 0.278\nsamples = 9\nvalue = [10, 2]\nclass = 0"] ;
3 -> 5 ;
6 [label="gini = 0.165\nsamples = 8\nvalue = [10, 1]\nclass = 0"] ;
5 -> 6 ;
7 [label="gini = 0.0\nsamples = 1\nvalue = [0, 1]\nclass = 1"] ;
5 -> 7 ;
8 [label="gini = 0.0\nsamples = 1\nvalue = [0, 1]\nclass = 1"] ;
2 -> 8 ;
9 [label="gini = 0.0\nsamples = 29\nvalue = [41, 0]\nclass = 0"] ;
1 -> 9 ;
10 [label="Number_children <= 10.5\ngini = 0.278\nsamples = 669\nvalue = [895, 179]\nclass = 0"] ;
0 -> 10 [labeldistance=2.5, labelangle=-45, headlabel="False"] ;
11 [label="Age <= 21.5\ngini = 0.276\nsamples = 668\nvalue = [895, 177]\nclass = 0"] ;
10 -> 11 ;
12 [label="education_level <= 7.5\ngini = 0.071\nsamples = 68\nvalue = [105, 4]\nclass = 0"] ;
11 -> 12 ;
13 [label="Age <= 18.5\ngini = 0.305\nsamples = 8\nvalue = [13, 3]\nclass = 0"] ;
12 -> 13 ;
14 [label="gini = 0.0\nsamples = 2\nvalue = [5, 0]\nclass = 0"] ;
13 -> 14 ;
15 [label="gini = 0.397\nsamples = 6\nvalue = [8, 3]\nclass = 0"] ;
13 -> 15 ;
16 [label="Age <= 19.5\ngini = 0.021\nsamples = 60\nvalue = [92, 1]\nclass = 0"] ;
12 -> 16 ;
17 [label="gini = 0.051\nsamples = 24\nvalue = [37, 1]\nclass = 0"] ;
16 -> 17 ;
18 [label="gini = 0.0\nsamples = 36\nvalue = [55, 0]\nclass = 0"] ;
16 -> 18 ;
19 [label="education_level <= 8.5\ngini = 0.295\nsamples = 600\nvalue = [790, 173]\nclass = 0"] ;
11 -> 19 ;
20 [label="Age <= 79.0\ngini = 0.367\nsamples = 221\nvalue = [273, 87]\nclass = 0"] ;
19 -> 20 ;
21 [label="gini = 0.36\nsamples = 212\nvalue = [267, 82]\nclass = 0"] ;
20 -> 21 ;
22 [label="gini = 0.496\nsamples = 9\nvalue = [6, 5]\nclass = 0"] ;
20 -> 22 ;
23 [label="Ville_id <= 27.5\ngini = 0.245\nsamples = 379\nvalue = [517, 86]\nclass = 0"] ;
19 -> 23 ;
24 [label="gini = 0.356\nsamples = 94\nvalue = [123, 37]\nclass = 0"] ;
23 -> 24 ;
25 [label="gini = 0.197\nsamples = 285\nvalue = [394, 49]\nclass = 0"] ;
23 -> 25 ;
26 [label="gini = 0.0\nsamples = 1\nvalue = [0, 2]\nclass = 1"] ;
10 -> 26 ;
}